
\data\
ngram 1=5


\1-grams:
-4.7039757 <unk> 0
0 <s> -1.505814
-4.554822 </s> 0
-4.3297 NEGRO -0.5886
-4.3297 AMARILLO -0.5886
-4.3297 ROJO -0.5886
-4.3297 VERDE -0.5886
-4.3297 AZUL -0.5886

\end\
